%YAML:1.0
---
opencv_ml_em:
   format: 3
   training_params:
      nclusters: 5
      cov_mat_type: diagonal
      epsilon: 1.0000000000000001e-01
      iterations: 100
   weights: !!opencv-matrix
      rows: 1
      cols: 5
      dt: d
      data: [ 6.9234140094955898e-01, 1.5116707817731112e-01,
          4.4974558799790655e-02, 4.0188265361611596e-02,
          7.1328696711742343e-02 ]
   means: !!opencv-matrix
      rows: 5
      cols: 3
      dt: d
      data: [ 2.5310335761750224e+02, 2.5398382487810770e+02,
          2.5467983683626440e+02, 1.0513614320354370e+02,
          1.4764077346052866e+02, 2.3798467833483392e+02,
          1.6038530606967925e+02, 1.0621108440369188e+02,
          2.2924491379853916e+02, 9.2609878748688175e+01,
          1.1664099363864837e+02, 1.7555479451687012e+02,
          1.7666260292802471e+02, 1.9813903273340898e+02,
          2.3986239085362934e+02 ]
   covs:
      - !!opencv-matrix
         rows: 3
         cols: 3
         dt: d
         data: [ 5.0004888614834243e+01, 0., 0., 0.,
             1.2440008612768416e+01, 0., 0., 0., 1.6547537344855046e+00 ]
      - !!opencv-matrix
         rows: 3
         cols: 3
         dt: d
         data: [ 2.0779553998979573e+01, 0., 0., 0.,
             7.7902239259131258e+00, 0., 0., 0., 2.8122822547370657e+01 ]
      - !!opencv-matrix
         rows: 3
         cols: 3
         dt: d
         data: [ 2.4887708553434603e+01, 0., 0., 0.,
             4.1966222294041160e+01, 0., 0., 0., 8.6273273599280657e+01 ]
      - !!opencv-matrix
         rows: 3
         cols: 3
         dt: d
         data: [ 9.4795407092091125e+02, 0., 0., 0.,
             9.0659853935559045e+02, 0., 0., 0., 1.7284350358719735e+03 ]
      - !!opencv-matrix
         rows: 3
         cols: 3
         dt: d
         data: [ 7.4083127872761213e+02, 0., 0., 0.,
             4.2795584951010301e+02, 0., 0., 0., 1.6740251795892905e+02 ]
